-1.276297759204195748e+00 -6.392675460705068979e-02 -5.625816848561254746e-03 -5.116601640049864841e-01 -3.355066088844315120e-01 -1.049132143140879547e-01 -3.302880654587410092e-01 -1.853099673238570444e-01 -3.618962820322119134e-01 -4.473456572802599895e-01 -3.349198333950909046e-01 1.120012272949501009e-01 7.602534854051192781e-01 -1.678531870532916914e-01 -3.605630713643216412e-01 4.040636447350880456e-01 -3.436857360243513737e-01 1.655294347330156235e-01 7.039327780554108238e-02 5.668572850094932836e-01 7.243430307320355421e-01 -4.635773040374427945e-01 8.166086573711811569e-02 2.306631436577336880e-01 5.910466229036590580e-01 -1.738694540366974906e+00 -1.428870898875871154e+00 1.143507236550517003e+00 2.383800801025477423e-01 -9.446115403560534363e-02 4.131062624307291764e-01 5.092885603499601732e-01 -1.526670500828026800e+00 -1.963468925012456373e-02 2.367837942359992121e-01 -4.660172231772754525e-01 2.038370767594920863e-01 1.390953109871722326e-01 6.459979911618636272e-01 1.815973534621111163e-01 -1.881582374555011983e-01 -7.593940463154538745e-02 -5.420889102442594254e-03 -2.015190713218133201e-01 2.596919256597157721e-01 -3.737836051029872486e-01 -3.162189138578038738e-01 -3.534131531570745000e-01 -4.998526455295629889e-01 -2.882994423065713407e-01
1.973808863024117954e-02 -3.430819314563371414e-01 -3.757986240768697583e-01 -3.256687829101393983e-01 -2.982093531687265431e-01 1.954794111448757699e-01 3.166726471304565638e-01 -4.520331239551511615e-02 -2.768838339611655597e-01 -2.501678335147662913e-01 -1.029842577269837633e+00 -7.573057301422525533e-01 -2.116615542354553514e-01 -1.158882025709500052e-01 2.141833395563055298e-01 -2.487409962058182988e-01 -5.118297867432747283e-01 -1.527371083592916401e+00 1.287212379079081259e-01 -2.645293129409893584e-01 -8.200795745914131185e-01 3.565087747424317555e-01 -4.082540032995635726e-01 -5.722350344864205463e-01 -2.013272362561331352e+00 1.422181571576207171e+00 -1.480629905540436164e+00 -4.769806516375607597e-01 3.670923687973907668e-01 1.845283255754510687e-01 -7.597234378734420979e-01 -8.131726945500776793e-01 1.087854906713894731e+00 -1.350290472169082934e+00 -2.753123993991976048e-01 -3.419997264685285532e-01 -2.976120692907454068e-01 -5.945750085617828445e-02 -1.335048746455850810e-01 -1.900971411079850903e-01 -1.890530886841961244e-01 -3.884483061039737395e-01 -4.782240211993644130e-01 -3.204662112271468577e-01 -2.979238226869501127e-01 -7.611497721403956973e-01 -4.896392923525705876e-01 -2.182881967415813973e-01 -4.237832887511053803e-01 -1.206188552462763020e-01
-1.527195229005362531e+00 -1.305319540386690180e-01 2.263815531962535266e-01 4.684315020919040395e-01 -2.659873222591846442e-02 1.054153439981670749e-02 9.761280333957385313e-02 -3.840508045019868089e-01 -8.314155894584701612e-02 3.911446866923509735e-01 7.396292795071529591e-01 1.071413633135311239e+00 2.181478737139017632e-01 -2.072686735941066116e-01 -6.067723653206025247e-02 -3.446801107527805441e-01 -1.494276373547583914e-01 -8.963004020073432887e-01 -7.552065984726006320e-01 -2.596962137136599180e-02 -3.323022033920513540e-01 2.159882476838210219e-01 -4.785779468865102304e-01 -5.579397474483814845e-01 -8.197829393188820202e-01 -5.913598866134262000e-01 -2.750239227990828872e-01 -8.144940532235231956e-01 -7.435786110741504640e-02 9.927081383966701589e-02 9.489332373188891223e-01 8.374255694509774584e-01 1.111953533980097664e+00 2.280463577503053507e-01 2.904315567276788967e-01 3.131742338583385910e-01 -2.031677677550899341e-01 6.507986559768955681e-01 2.747339127786327384e-01 -6.032284263220480947e-01 5.947545448441649701e-02 5.655035086158040070e-01 5.881449100381768158e-01 2.329044646708702815e-01 -9.419633897443330239e-02 -3.485110454734281493e-01 -4.113189440162015043e-01 2.036217667569483747e-01 4.458008679867246915e-01 -2.576913718773384820e-01
-1.379887119873335566e+00 1.064511600867110719e-01 -8.257428530205562778e-02 -2.928332008768119166e-01 -1.576094943533551396e-01 -4.916592312617245053e-01 1.226485267001227869e-01 -3.370605667239029990e-01 -2.664823279650280763e-01 2.502489268209110995e-01 4.883724894091039936e-01 4.821786138145872647e-01 -8.802846885328030613e-02 -4.256304403038870254e-01 -2.978827425106980731e-01 4.983300546117907376e-02 -2.350775570416152038e-01 -1.513511800735676927e+00 -4.569427732538144937e-02 7.090489132291077912e-01 -1.963418633860939955e-01 -4.780665111398429978e-01 2.798350688802189179e-01 -6.783972842368557465e-01 -5.220451517518754914e-01 8.650186628966167746e-01 3.599843205155031645e-01 -3.704155522902257691e-01 -3.024434996492597061e-01 -3.876335980994478625e-01 -3.483783984055992961e-02 -1.418511014408875281e+00 -1.476885604592951928e+00 3.765244935535009274e-01 6.503220576787495100e-01 1.677902997006446295e-01 3.946282579719241901e-01 9.228399970845804212e-01 3.072552225663446879e-01 2.260770247114587961e-01 3.827396149170807504e-01 -4.046145131620714208e-01 8.106907714858413438e-02 2.059519152649167406e-01 3.820621471504291877e-01 3.940182103461350449e-01 1.958003965828429838e-01 2.212345594720418473e-01 -1.311537977054674231e-01 -1.609434319762362842e-01
-9.152460755442429763e-01 -4.640676148859090855e-01 -1.638240327647296768e-01 -4.584618250227033842e-01 -2.012716842887350976e-01 -1.958913096099973439e-01 -2.368254414516635098e-02 4.378003432344348411e-01 1.914671994530241506e-01 3.772029024456710067e-01 -1.331198879692737508e-04 -1.366681173502852786e+00 -2.891614497852564858e-01 5.446860354752143252e-01 -4.172770594217001250e-01 -4.665803664625467473e-02 -2.224889267459569941e-01 -2.650023933130261078e-01 -1.258421033584229631e+00 -1.756679493890257460e-01 -2.242953960442028993e-02 4.699905688329508030e-02 8.714866624476169665e-02 6.985411439669391154e-01 1.091854089399759697e+00 3.100616636755781919e-02 5.734369753488558485e-01 -1.923485881759755545e-01 -4.615431071512153816e-01 -3.934156525546884664e-01 -5.746607592985186752e-02 2.182190729311584559e-02 3.828128858245721799e-01 1.674725750051080375e-01 -5.215502902248009276e-01 -1.578003619787214304e-03 -4.366293699182429711e-01 -1.273913210950419206e-01 -8.512801035602443056e-01 -1.011733443476119376e-01 -1.496101853656273128e-01 -2.309757913089682813e-01 1.288416063652830790e-01 -4.210582935649918035e-01 4.489772981463895363e-01 3.437928554704462042e-02 -5.360032600023344473e-01 1.506386225702269765e-01 2.162691323263825627e-01 -1.814585664382408758e-01
-9.267369073903871657e-01 3.054695821523556454e-02 -4.879155089663710365e-01 3.026916339181906501e-02 -4.160300610307835489e-01 3.410556558206466748e-01 1.258034822493621085e-01 -5.790793218564538325e-02 -2.269417598655032453e-02 -3.353268938251826592e-01 -2.357382823671528432e-02 -3.762501148349637337e-01 -1.532542208279848994e-01 6.738246452894590677e-01 4.951256324055796076e-01 3.967980014440807279e-01 -5.393416022374430963e-02 5.697677102924847414e-01 4.581685913520083808e-02 -6.879314145978479011e-01 -6.334234731886420056e-01 -1.375935582900048582e-01 -8.734592599245194489e-02 -3.797210815495838387e-01 4.501006441039567818e-01 1.490360176417685478e-01 -4.268981023717299816e-01 -4.037500773808322396e-01 -1.684281667584280884e-01 3.598500119613970982e-01 3.711261150779588541e-02 -5.266084255008588455e-01 -4.640859092673359498e-01 -2.293975369890198790e-01 -4.846962367344528344e-01 -5.457617339483444852e-02 -1.501949586104335266e-01 2.908595189150959825e-01 5.903839698159207838e-01 2.711660869132025420e-01 1.012866973977422091e-01 5.229676763164458064e-01 2.049967631499252096e-01 -2.669710287593873854e-01 1.009754074233374377e-01 -4.466445044548361665e-02 2.352851020259251191e-01 -9.080778595506050141e-03 2.311233095497227108e-01 1.259728077855587491e-01
-1.320667924411096816e+00 3.418634791195884759e-02 -4.207791737198507409e-02 -5.424842433586180013e-02 1.028355575135428968e+00 5.987590373072393390e-01 4.012203838025807379e-03 -4.759043582082718160e-01 -1.365647951659122450e-01 -6.679667124657523436e-02 -3.165345206294845615e-01 -1.673529685550467078e-02 -3.556228596995548163e-01 -4.083229088175043819e-01 -3.039636575876563662e-01 3.780310792868356029e-01 -2.828464661145786985e-01 -1.676567321114761366e-01 -5.938405664213763924e-02 -1.778460883608189436e+00 -8.482621622881638679e-01 -1.496512401953268290e-01 -9.596487905853728906e-02 -3.526432228241834776e-01 5.842225795416103873e-01 2.911315253419460847e-02 2.515012685155683103e-01 6.660586806654069658e-01 6.112891668804503603e-02 -4.197350647462840811e-01 -2.881039134111058053e-01 1.371872949427800803e+00 2.141023810897203505e-01 3.389496533016246871e-01 2.625092794549833131e-01 2.432768430162590700e-01 -1.484962320861243912e-01 -5.612525235990978301e-01 -3.175215109199273078e-01 3.489346129185205148e-01 -2.249699316556136308e-01 -1.730323366597456558e-01 -3.498167029295609631e-01 6.193561346030173470e-02 2.820368476016489323e-01 4.968070780721351581e-02 -5.435659853154106713e-01 -6.211290806311881713e-02 -3.826826353397819735e-01 -2.325263209670000997e-01
-6.166840206950072734e-01 4.395170899448689328e-01 7.305776306362332662e-02 7.499137549689410820e-02 1.981698247260894052e-01 2.423731472201469672e-01 3.468634310273760457e-02 4.647691214602379106e-01 -1.831371223424114736e-01 -3.483164089351077353e-01 7.736648946849897582e-03 -7.769213880714828102e-01 -7.808265735448379763e-01 -8.903953707026163178e-02 1.710882030355941330e-01 2.929544298630843424e-01 3.508441284094512280e-01 6.686789051209820478e-01 7.704592019031628602e-01 1.210660777519248388e+00 3.314388174087992134e-01 -4.281884700266349042e-01 9.255451077565096663e-02 -2.114269194346143355e-01 -1.797880463950078944e+00 -1.777880897872601951e+00 5.931173745728093305e-01 5.575156249664372024e-03 4.326336324894031193e-01 -4.953978302549361112e-02 -3.425230923000393557e-01 -1.502939057880379181e+00 2.259980241030950521e-01 -6.595074748784679475e-02 -7.355099101590725219e-01 -2.824298762495874304e-01 -3.790084646937326163e-01 -4.930585924724418256e-01 -3.389679515389695807e-01 -8.690067441177512508e-02 -5.453023014612528030e-01 -1.779279565313320877e-01 4.845871348709360205e-01 -4.448535926750831759e-01 1.350066781025802687e-01 3.766845852105523140e-01 7.749638478827702848e-01 -1.394492148493520212e-01 3.577961207118543485e-01 -2.335816781435509082e-01
-1.679771104629492973e+00 -2.634541982581629638e-01 -3.628859858650601566e-02 9.476458068233208076e-02 -3.820074681114866699e-01 -3.033995789799232012e-01 -2.573196934567941740e-01 1.188883133383446117e-01 3.819428951836849606e-01 1.183477597604831871e-01 -2.219087445301236583e-01 1.354553446018988971e-01 -1.942995239719902401e-02 2.722023807558459491e-02 2.427015471862653540e-01 1.532724078758258557e-01 -1.744618825496430103e-01 4.913762257439669989e-01 -2.610889318565544626e-01 -1.801987785511985907e-01 4.890334985265828438e-01 -1.938670752504838557e-01 -2.232742984539235476e-01 -1.717159450351587457e-01 -3.006415248413093488e-01 6.229226903809236271e-01 -6.372203083334460061e-02 -1.679099311033810382e-01 -1.518725393072333230e-01 -4.036885671881512705e-01 -2.597753452660869211e-01 4.963331900656476892e-01 -8.129759935210256749e-03 -3.350407265416017744e-01 -4.773173481494169534e-01 -7.814032103645696115e-02 2.206129830571446071e-01 -8.716846228857144663e-02 1.264383770315803401e-01 1.761913890850798081e-01 2.516544395788175015e-01 -1.694261088801839454e-01 1.913587479687970383e-01 1.568143453070023341e-01 -2.303547137930197497e-01 2.895909125946638518e-01 5.647815127018351172e-02 8.566085350998520198e-02 -9.479414078721803971e-02 4.198162810686889568e-02
-1.251766103525520091e+00 2.009243149159083419e-01 -1.467485289947106919e-01 -9.295926264371667802e-02 -1.275228369344469925e-01 3.204695127094866480e-01 -7.050528424750002188e-02 -8.150524516318469193e-02 -3.034609629589082314e-01 3.227950202365660326e-01 -4.159317096860394303e-01 2.947172222853333690e-01 1.780267858216383683e-03 -2.762078285648928988e-01 -1.268097492199494747e-01 3.848171614409571228e-01 -4.277715351064164118e-01 2.434038413380967825e-01 5.490109717266000722e-02 1.252774578278578188e-01 -1.531707960975158267e-01 1.128332587409520832e-01 3.221432494154548021e-01 3.118600759901175579e-01 2.215710613389595407e-01 1.587589525678989588e-01 2.067198675693237009e-01 -2.419221963194756464e-01 -2.162524176288336264e-01 -3.175338045431463918e-03 -3.920511534933989600e-02 -1.099051802289232604e-01 -9.042274634662095245e-02 -1.330040480734394626e-01 -3.912232060030793601e-01 -4.493648615802510182e-01 2.974767250158594223e-01 -8.976383285317734995e-02 -3.325387748744240701e-01 -3.237076170536760111e-01 -3.120569701667459395e-01 2.168933016133438585e-01 2.266481385712522112e-01 8.406793779200705252e-02 1.636904615985003142e-01 6.478832300204384609e-02 1.843122832238355269e-01 5.154207038864022650e-01 3.422004073962559012e-02 4.390734090448923377e-01
